digraph Tree {
node [shape=box, style="filled, rounded", color="black", fontname=helvetica] ;
edge [fontname=helvetica] ;
0 [label="certain <= 0.011\ngini = 0.5\nsamples = 1651\nvalue = [0.494, 0.506]\nclass = democrats", fillcolor="#399de500"] ;
1 [label="cogproc <= 0.053\ngini = 0.442\nsamples = 731\nvalue = [0.33, 0.67]\nclass = democrats", fillcolor="#399de500"] ;
0 -> 1 [labeldistance=2.5, labelangle=45, headlabel="True"] ;
2 [label="compare <= 0.016\ngini = 0.332\nsamples = 382\nvalue = [0.21, 0.79]\nclass = democrats", fillcolor="#399de500"] ;
1 -> 2 ;
3 [label="affiliation <= 0.071\ngini = 0.405\nsamples = 218\nvalue = [0.282, 0.718]\nclass = democrats", fillcolor="#399de500"] ;
2 -> 3 ;
4 [label="we <= 0.015\ngini = 0.388\nsamples = 215\nvalue = [0.263, 0.737]\nclass = democrats", fillcolor="#399de500"] ;
3 -> 4 ;
5 [label="female <= 0.002\ngini = 0.449\nsamples = 133\nvalue = [0.341, 0.659]\nclass = democrats", fillcolor="#399de500"] ;
4 -> 5 ;
6 [label="money <= 0.009\ngini = 0.357\nsamples = 80\nvalue = [0.233, 0.767]\nclass = democrats", fillcolor="#399de501"] ;
5 -> 6 ;
7 [label="verb <= 0.098\ngini = 0.469\nsamples = 14\nvalue = [0.625, 0.375]\nclass = republicans", fillcolor="#e5813903"] ;
6 -> 7 ;
8 [label="hear <= 0.016\ngini = 0.117\nsamples = 9\nvalue = [0.938, 0.062]\nclass = republicans", fillcolor="#e581390e"] ;
7 -> 8 ;
9 [label="gini = 0.0\nsamples = 7\nvalue = [1, 0]\nclass = republicans", fillcolor="#e5813912"] ;
8 -> 9 ;
10 [label="feel <= 0.001\ngini = 0.5\nsamples = 2\nvalue = [0.5, 0.5]\nclass = republicans", fillcolor="#e5813900"] ;
8 -> 10 ;
11 [label="gini = 0.0\nsamples = 1\nvalue = [1, 0]\nclass = republicans", fillcolor="#e58139ff"] ;
10 -> 11 ;
12 [label="gini = 0.0\nsamples = 1\nvalue = [0, 1]\nclass = democrats", fillcolor="#399de5ff"] ;
10 -> 12 ;
13 [label="gini = 0.0\nsamples = 5\nvalue = [0, 1]\nclass = democrats", fillcolor="#399de520"] ;
7 -> 13 ;
14 [label="tentat <= 0.013\ngini = 0.245\nsamples = 66\nvalue = [0.143, 0.857]\nclass = democrats", fillcolor="#399de502"] ;
6 -> 14 ;
15 [label="adverb <= 0.011\ngini = 0.208\nsamples = 64\nvalue = [0.118, 0.882]\nclass = democrats", fillcolor="#399de502"] ;
14 -> 15 ;
16 [label="ipron <= 0.008\ngini = 0.426\nsamples = 17\nvalue = [0.308, 0.692]\nclass = democrats", fillcolor="#399de504"] ;
15 -> 16 ;
17 [label="gini = 0.0\nsamples = 7\nvalue = [0, 1]\nclass = democrats", fillcolor="#399de515"] ;
16 -> 17 ;
18 [label="affect <= 0.054\ngini = 0.49\nsamples = 10\nvalue = [0.571, 0.429]\nclass = republicans", fillcolor="#e5813903"] ;
16 -> 18 ;
19 [label="gini = 0.0\nsamples = 4\nvalue = [0, 1]\nclass = democrats", fillcolor="#399de533"] ;
18 -> 19 ;
20 [label="we <= 0.013\ngini = 0.198\nsamples = 6\nvalue = [0.889, 0.111]\nclass = republicans", fillcolor="#e5813916"] ;
18 -> 20 ;
21 [label="gini = 0.0\nsamples = 5\nvalue = [1, 0]\nclass = republicans", fillcolor="#e5813920"] ;
20 -> 21 ;
22 [label="gini = 0.0\nsamples = 1\nvalue = [0, 1]\nclass = democrats", fillcolor="#399de5ff"] ;
20 -> 22 ;
23 [label="ingest <= 0.006\ngini = 0.1\nsamples = 47\nvalue = [0.053, 0.947]\nclass = democrats", fillcolor="#399de503"] ;
15 -> 23 ;
24 [label="percept <= 0.011\ngini = 0.03\nsamples = 41\nvalue = [0.015, 0.985]\nclass = democrats", fillcolor="#399de504"] ;
23 -> 24 ;
25 [label="informal <= 0.005\ngini = 0.444\nsamples = 2\nvalue = [0.333, 0.667]\nclass = democrats", fillcolor="#399de520"] ;
24 -> 25 ;
26 [label="gini = 0.0\nsamples = 1\nvalue = [1, 0]\nclass = republicans", fillcolor="#e58139ff"] ;
25 -> 26 ;
27 [label="gini = 0.0\nsamples = 1\nvalue = [0, 1]\nclass = democrats", fillcolor="#399de580"] ;
25 -> 27 ;
28 [label="gini = 0.0\nsamples = 39\nvalue = [0, 1]\nclass = democrats", fillcolor="#399de504"] ;
24 -> 28 ;
29 [label="ipron <= 0.011\ngini = 0.42\nsamples = 6\nvalue = [0.3, 0.7]\nclass = democrats", fillcolor="#399de50b"] ;
23 -> 29 ;
30 [label="gini = 0.0\nsamples = 2\nvalue = [1, 0]\nclass = republicans", fillcolor="#e5813955"] ;
29 -> 30 ;
31 [label="gini = 0.0\nsamples = 4\nvalue = [0, 1]\nclass = democrats", fillcolor="#399de524"] ;
29 -> 31 ;
32 [label="gini = 0.0\nsamples = 2\nvalue = [1, 0]\nclass = republicans", fillcolor="#e5813955"] ;
14 -> 32 ;
33 [label="shehe <= 0.008\ngini = 0.5\nsamples = 53\nvalue = [0.495, 0.505]\nclass = democrats", fillcolor="#399de500"] ;
5 -> 33 ;
34 [label="bio <= 0.01\ngini = 0.478\nsamples = 41\nvalue = [0.606, 0.394]\nclass = republicans", fillcolor="#e5813901"] ;
33 -> 34 ;
35 [label="certain <= 0.004\ngini = 0.245\nsamples = 7\nvalue = [0.143, 0.857]\nclass = democrats", fillcolor="#399de50d"] ;
34 -> 35 ;
36 [label="gini = 0.0\nsamples = 2\nvalue = [1, 0]\nclass = republicans", fillcolor="#e5813980"] ;
35 -> 36 ;
37 [label="gini = 0.0\nsamples = 5\nvalue = [0, 1]\nclass = democrats", fillcolor="#399de515"] ;
35 -> 37 ;
38 [label="anx <= 0.001\ngini = 0.404\nsamples = 34\nvalue = [0.719, 0.281]\nclass = republicans", fillcolor="#e5813902"] ;
34 -> 38 ;
39 [label="risk <= 0.004\ngini = 0.495\nsamples = 12\nvalue = [0.45, 0.55]\nclass = democrats", fillcolor="#399de501"] ;
38 -> 39 ;
40 [label="gini = 0.0\nsamples = 3\nvalue = [1, 0]\nclass = republicans", fillcolor="#e5813924"] ;
39 -> 40 ;
41 [label="swear <= 0.001\ngini = 0.26\nsamples = 9\nvalue = [0.154, 0.846]\nclass = democrats", fillcolor="#399de50e"] ;
39 -> 41 ;
42 [label="gini = 0.0\nsamples = 8\nvalue = [0, 1]\nclass = democrats", fillcolor="#399de517"] ;
41 -> 42 ;
43 [label="gini = 0.0\nsamples = 1\nvalue = [1, 0]\nclass = republicans", fillcolor="#e5813980"] ;
41 -> 43 ;
44 [label="affect <= 0.068\ngini = 0.234\nsamples = 22\nvalue = [0.865, 0.135]\nclass = republicans", fillcolor="#e5813905"] ;
38 -> 44 ;
45 [label="focusfuture <= 0.011\ngini = 0.121\nsamples = 17\nvalue = [0.935, 0.065]\nclass = republicans", fillcolor="#e5813907"] ;
44 -> 45 ;
46 [label="gini = 0.0\nsamples = 14\nvalue = [1, 0]\nclass = republicans", fillcolor="#e5813909"] ;
45 -> 46 ;
47 [label="we <= 0.006\ngini = 0.444\nsamples = 3\nvalue = [0.333, 0.667]\nclass = democrats", fillcolor="#399de520"] ;
45 -> 47 ;
48 [label="gini = 0.0\nsamples = 1\nvalue = [1, 0]\nclass = republicans", fillcolor="#e58139ff"] ;
47 -> 48 ;
49 [label="gini = 0.0\nsamples = 2\nvalue = [0, 1]\nclass = democrats", fillcolor="#399de580"] ;
47 -> 49 ;
50 [label="focuspast <= 0.013\ngini = 0.5\nsamples = 5\nvalue = [0.5, 0.5]\nclass = republicans", fillcolor="#e5813900"] ;
44 -> 50 ;
51 [label="gini = 0.0\nsamples = 1\nvalue = [1, 0]\nclass = republicans", fillcolor="#e5813980"] ;
50 -> 51 ;
52 [label="focusfuture <= 0.009\ngini = 0.375\nsamples = 4\nvalue = [0.25, 0.75]\nclass = democrats", fillcolor="#399de522"] ;
50 -> 52 ;
53 [label="gini = 0.0\nsamples = 1\nvalue = [1, 0]\nclass = republicans", fillcolor="#e58139ff"] ;
52 -> 53 ;
54 [label="gini = 0.0\nsamples = 3\nvalue = [0, 1]\nclass = democrats", fillcolor="#399de555"] ;
52 -> 54 ;
55 [label="motion <= 0.029\ngini = 0.18\nsamples = 12\nvalue = [0.1, 0.9]\nclass = democrats", fillcolor="#399de50a"] ;
33 -> 55 ;
56 [label="gini = 0.0\nsamples = 11\nvalue = [0, 1]\nclass = democrats", fillcolor="#399de50e"] ;
55 -> 56 ;
57 [label="gini = 0.0\nsamples = 1\nvalue = [1, 0]\nclass = republicans", fillcolor="#e5813980"] ;
55 -> 57 ;
58 [label="female <= 0.009\ngini = 0.222\nsamples = 82\nvalue = [0.127, 0.873]\nclass = democrats", fillcolor="#399de502"] ;
4 -> 58 ;
59 [label="negemo <= 0.007\ngini = 0.19\nsamples = 78\nvalue = [0.107, 0.893]\nclass = democrats", fillcolor="#399de502"] ;
58 -> 59 ;
60 [label="adverb <= 0.006\ngini = 0.384\nsamples = 16\nvalue = [0.259, 0.741]\nclass = democrats", fillcolor="#399de505"] ;
59 -> 60 ;
61 [label="gini = 0.0\nsamples = 1\nvalue = [1, 0]\nclass = republicans", fillcolor="#e5813955"] ;
60 -> 61 ;
62 [label="hear <= 0.004\ngini = 0.278\nsamples = 15\nvalue = [0.167, 0.833]\nclass = democrats", fillcolor="#399de507"] ;
60 -> 62 ;
63 [label="posemo <= 0.053\ngini = 0.48\nsamples = 6\nvalue = [0.4, 0.6]\nclass = democrats", fillcolor="#399de505"] ;
62 -> 63 ;
64 [label="gini = 0.0\nsamples = 2\nvalue = [1, 0]\nclass = republicans", fillcolor="#e5813955"] ;
63 -> 64 ;
65 [label="money <= 0.027\ngini = 0.245\nsamples = 4\nvalue = [0.143, 0.857]\nclass = democrats", fillcolor="#399de51b"] ;
63 -> 65 ;
66 [label="gini = 0.0\nsamples = 3\nvalue = [0, 1]\nclass = democrats", fillcolor="#399de52a"] ;
65 -> 66 ;
67 [label="gini = 0.0\nsamples = 1\nvalue = [1, 0]\nclass = republicans", fillcolor="#e58139ff"] ;
65 -> 67 ;
68 [label="gini = 0.0\nsamples = 9\nvalue = [0, 1]\nclass = democrats", fillcolor="#399de512"] ;
62 -> 68 ;
69 [label="function <= 0.446\ngini = 0.118\nsamples = 62\nvalue = [0.063, 0.937]\nclass = democrats", fillcolor="#399de502"] ;
59 -> 69 ;
70 [label="tentat <= 0.0\ngini = 0.101\nsamples = 61\nvalue = [0.053, 0.947]\nclass = democrats", fillcolor="#399de502"] ;
69 -> 70 ;
71 [label="gini = 0.0\nsamples = 1\nvalue = [1, 0]\nclass = republicans", fillcolor="#e58139ff"] ;
70 -> 71 ;
72 [label="leisure <= 0.021\ngini = 0.082\nsamples = 60\nvalue = [0.043, 0.957]\nclass = democrats", fillcolor="#399de503"] ;
70 -> 72 ;
73 [label="adj <= 0.05\ngini = 0.063\nsamples = 59\nvalue = [0.033, 0.967]\nclass = democrats", fillcolor="#399de503"] ;
72 -> 73 ;
74 [label="feel <= 0.003\ngini = 0.043\nsamples = 58\nvalue = [0.022, 0.978]\nclass = democrats", fillcolor="#399de503"] ;
73 -> 74 ;
75 [label="gini = 0.0\nsamples = 47\nvalue = [0, 1]\nclass = democrats", fillcolor="#399de503"] ;
74 -> 75 ;
76 [label="tentat <= 0.005\ngini = 0.219\nsamples = 11\nvalue = [0.125, 0.875]\nclass = democrats", fillcolor="#399de50c"] ;
74 -> 76 ;
77 [label="body <= 0.001\ngini = 0.48\nsamples = 3\nvalue = [0.4, 0.6]\nclass = democrats", fillcolor="#399de50b"] ;
76 -> 77 ;
78 [label="gini = 0.0\nsamples = 2\nvalue = [0, 1]\nclass = democrats", fillcolor="#399de555"] ;
77 -> 78 ;
79 [label="gini = 0.0\nsamples = 1\nvalue = [1, 0]\nclass = republicans", fillcolor="#e5813980"] ;
77 -> 79 ;
80 [label="gini = 0.0\nsamples = 8\nvalue = [0, 1]\nclass = democrats", fillcolor="#399de517"] ;
76 -> 80 ;
81 [label="gini = 0.0\nsamples = 1\nvalue = [1, 0]\nclass = republicans", fillcolor="#e58139ff"] ;
73 -> 81 ;
82 [label="gini = 0.0\nsamples = 1\nvalue = [1, 0]\nclass = republicans", fillcolor="#e58139ff"] ;
72 -> 82 ;
83 [label="gini = 0.0\nsamples = 1\nvalue = [1, 0]\nclass = republicans", fillcolor="#e58139ff"] ;
69 -> 83 ;
84 [label="risk <= 0.004\ngini = 0.375\nsamples = 4\nvalue = [0.75, 0.25]\nclass = republicans", fillcolor="#e5813922"] ;
58 -> 84 ;
85 [label="gini = 0.0\nsamples = 1\nvalue = [0, 1]\nclass = democrats", fillcolor="#399de5ff"] ;
84 -> 85 ;
86 [label="gini = 0.0\nsamples = 3\nvalue = [1, 0]\nclass = republicans", fillcolor="#e5813955"] ;
84 -> 86 ;
87 [label="gini = 0.0\nsamples = 3\nvalue = [1, 0]\nclass = republicans", fillcolor="#e581391c"] ;
3 -> 87 ;
88 [label="adverb <= 0.021\ngini = 0.198\nsamples = 164\nvalue = [0.112, 0.888]\nclass = democrats", fillcolor="#399de501"] ;
2 -> 88 ;
89 [label="percept <= 0.006\ngini = 0.267\nsamples = 101\nvalue = [0.159, 0.841]\nclass = democrats", fillcolor="#399de501"] ;
88 -> 89 ;
90 [label="percept <= 0.005\ngini = 0.444\nsamples = 4\nvalue = [0.667, 0.333]\nclass = republicans", fillcolor="#e581390f"] ;
89 -> 90 ;
91 [label="gini = 0.0\nsamples = 2\nvalue = [0, 1]\nclass = democrats", fillcolor="#399de580"] ;
90 -> 91 ;
92 [label="gini = 0.0\nsamples = 2\nvalue = [1, 0]\nclass = republicans", fillcolor="#e5813940"] ;
90 -> 92 ;
93 [label="female <= 0.01\ngini = 0.24\nsamples = 97\nvalue = [0.139, 0.861]\nclass = democrats", fillcolor="#399de501"] ;
89 -> 93 ;
94 [label="differ <= 0.007\ngini = 0.198\nsamples = 93\nvalue = [0.111, 0.889]\nclass = democrats", fillcolor="#399de501"] ;
93 -> 94 ;
95 [label="anx <= 0.002\ngini = 0.085\nsamples = 53\nvalue = [0.044, 0.956]\nclass = democrats", fillcolor="#399de503"] ;
94 -> 95 ;
96 [label="differ <= 0.002\ngini = 0.025\nsamples = 44\nvalue = [0.013, 0.987]\nclass = democrats", fillcolor="#399de503"] ;
95 -> 96 ;
97 [label="adj <= 0.048\ngini = 0.444\nsamples = 2\nvalue = [0.333, 0.667]\nclass = democrats", fillcolor="#399de520"] ;
96 -> 97 ;
98 [label="gini = 0.0\nsamples = 1\nvalue = [0, 1]\nclass = democrats", fillcolor="#399de580"] ;
97 -> 98 ;
99 [label="gini = 0.0\nsamples = 1\nvalue = [1, 0]\nclass = republicans", fillcolor="#e58139ff"] ;
97 -> 99 ;
100 [label="gini = 0.0\nsamples = 42\nvalue = [0, 1]\nclass = democrats", fillcolor="#399de503"] ;
96 -> 100 ;
101 [label="affect <= 0.051\ngini = 0.375\nsamples = 9\nvalue = [0.25, 0.75]\nclass = democrats", fillcolor="#399de50b"] ;
95 -> 101 ;
102 [label="gini = 0.0\nsamples = 1\nvalue = [1, 0]\nclass = republicans", fillcolor="#e5813980"] ;
101 -> 102 ;
103 [label="focuspast <= 0.017\ngini = 0.18\nsamples = 8\nvalue = [0.1, 0.9]\nclass = democrats", fillcolor="#399de515"] ;
101 -> 103 ;
104 [label="gini = 0.0\nsamples = 1\nvalue = [1, 0]\nclass = republicans", fillcolor="#e58139ff"] ;
103 -> 104 ;
105 [label="gini = 0.0\nsamples = 7\nvalue = [0, 1]\nclass = democrats", fillcolor="#399de51c"] ;
103 -> 105 ;
106 [label="sad <= 0.002\ngini = 0.328\nsamples = 40\nvalue = [0.206, 0.794]\nclass = democrats", fillcolor="#399de502"] ;
94 -> 106 ;
107 [label="cause <= 0.01\ngini = 0.488\nsamples = 16\nvalue = [0.421, 0.579]\nclass = democrats", fillcolor="#399de502"] ;
106 -> 107 ;
108 [label="gini = 0.0\nsamples = 4\nvalue = [1, 0]\nclass = republicans", fillcolor="#e5813940"] ;
107 -> 108 ;
109 [label="differ <= 0.008\ngini = 0.391\nsamples = 12\nvalue = [0.267, 0.733]\nclass = democrats", fillcolor="#399de508"] ;
107 -> 109 ;
110 [label="gini = 0.0\nsamples = 2\nvalue = [1, 0]\nclass = republicans", fillcolor="#e5813940"] ;
109 -> 110 ;
111 [label="gini = 0.0\nsamples = 10\nvalue = [0, 1]\nclass = democrats", fillcolor="#399de517"] ;
109 -> 111 ;
112 [label="affect <= 0.048\ngini = 0.201\nsamples = 24\nvalue = [0.114, 0.886]\nclass = democrats", fillcolor="#399de504"] ;
106 -> 112 ;
113 [label="gini = 0.0\nsamples = 1\nvalue = [1, 0]\nclass = republicans", fillcolor="#e5813955"] ;
112 -> 113 ;
114 [label="insight <= 0.016\ngini = 0.093\nsamples = 23\nvalue = [0.049, 0.951]\nclass = democrats", fillcolor="#399de506"] ;
112 -> 114 ;
115 [label="power <= 0.033\ngini = 0.049\nsamples = 22\nvalue = [0.025, 0.975]\nclass = democrats", fillcolor="#399de506"] ;
114 -> 115 ;
116 [label="we <= 0.025\ngini = 0.444\nsamples = 2\nvalue = [0.333, 0.667]\nclass = democrats", fillcolor="#399de520"] ;
115 -> 116 ;
117 [label="gini = 0.0\nsamples = 1\nvalue = [0, 1]\nclass = democrats", fillcolor="#399de580"] ;
116 -> 117 ;
118 [label="gini = 0.0\nsamples = 1\nvalue = [1, 0]\nclass = republicans", fillcolor="#e58139ff"] ;
116 -> 118 ;
119 [label="gini = 0.0\nsamples = 20\nvalue = [0, 1]\nclass = democrats", fillcolor="#399de507"] ;
115 -> 119 ;
120 [label="gini = 0.0\nsamples = 1\nvalue = [1, 0]\nclass = republicans", fillcolor="#e58139ff"] ;
114 -> 120 ;
121 [label="gini = 0.0\nsamples = 4\nvalue = [1, 0]\nclass = republicans", fillcolor="#e5813933"] ;
93 -> 121 ;
122 [label="reward <= 0.005\ngini = 0.061\nsamples = 63\nvalue = [0.031, 0.969]\nclass = democrats", fillcolor="#399de502"] ;
88 -> 122 ;
123 [label="gini = 0.0\nsamples = 1\nvalue = [1, 0]\nclass = republicans", fillcolor="#e58139ff"] ;
122 -> 123 ;
124 [label="number <= 0.027\ngini = 0.041\nsamples = 62\nvalue = [0.021, 0.979]\nclass = democrats", fillcolor="#399de503"] ;
122 -> 124 ;
125 [label="gini = 0.0\nsamples = 52\nvalue = [0, 1]\nclass = democrats", fillcolor="#399de503"] ;
124 -> 125 ;
126 [label="percept <= 0.037\ngini = 0.245\nsamples = 10\nvalue = [0.143, 0.857]\nclass = democrats", fillcolor="#399de50d"] ;
124 -> 126 ;
127 [label="ipron <= 0.017\ngini = 0.142\nsamples = 9\nvalue = [0.077, 0.923]\nclass = democrats", fillcolor="#399de511"] ;
126 -> 127 ;
128 [label="gini = 0.0\nsamples = 1\nvalue = [1, 0]\nclass = republicans", fillcolor="#e58139ff"] ;
127 -> 128 ;
129 [label="gini = 0.0\nsamples = 8\nvalue = [0, 1]\nclass = democrats", fillcolor="#399de515"] ;
127 -> 129 ;
130 [label="gini = 0.0\nsamples = 1\nvalue = [1, 0]\nclass = republicans", fillcolor="#e58139ff"] ;
126 -> 130 ;
131 [label="female <= 0.002\ngini = 0.497\nsamples = 349\nvalue = [0.463, 0.537]\nclass = democrats", fillcolor="#399de500"] ;
1 -> 131 ;
132 [label="negemo <= 0.017\ngini = 0.462\nsamples = 196\nvalue = [0.362, 0.638]\nclass = democrats", fillcolor="#399de500"] ;
131 -> 132 ;
133 [label="achieve <= 0.012\ngini = 0.315\nsamples = 113\nvalue = [0.196, 0.804]\nclass = democrats", fillcolor="#399de501"] ;
132 -> 133 ;
134 [label="female <= 0.001\ngini = 0.245\nsamples = 3\nvalue = [0.857, 0.143]\nclass = republicans", fillcolor="#e581391b"] ;
133 -> 134 ;
135 [label="gini = 0.0\nsamples = 1\nvalue = [0, 1]\nclass = democrats", fillcolor="#399de5ff"] ;
134 -> 135 ;
136 [label="gini = 0.0\nsamples = 2\nvalue = [1, 0]\nclass = republicans", fillcolor="#e581392a"] ;
134 -> 136 ;
137 [label="posemo <= 0.04\ngini = 0.28\nsamples = 110\nvalue = [0.169, 0.831]\nclass = democrats", fillcolor="#399de501"] ;
133 -> 137 ;
138 [label="family <= 0.006\ngini = 0.467\nsamples = 38\nvalue = [0.371, 0.629]\nclass = democrats", fillcolor="#399de501"] ;
137 -> 138 ;
139 [label="money <= 0.016\ngini = 0.325\nsamples = 31\nvalue = [0.204, 0.796]\nclass = democrats", fillcolor="#399de503"] ;
138 -> 139 ;
140 [label="work <= 0.043\ngini = 0.495\nsamples = 15\nvalue = [0.45, 0.55]\nclass = democrats", fillcolor="#399de501"] ;
139 -> 140 ;
141 [label="gini = 0.0\nsamples = 4\nvalue = [0, 1]\nclass = democrats", fillcolor="#399de52a"] ;
140 -> 141 ;
142 [label="ppron <= 0.025\ngini = 0.459\nsamples = 11\nvalue = [0.643, 0.357]\nclass = republicans", fillcolor="#e5813905"] ;
140 -> 142 ;
143 [label="gini = 0.0\nsamples = 3\nvalue = [0, 1]\nclass = democrats", fillcolor="#399de555"] ;
142 -> 143 ;
144 [label="netspeak <= 0.001\ngini = 0.298\nsamples = 8\nvalue = [0.818, 0.182]\nclass = republicans", fillcolor="#e581390f"] ;
142 -> 144 ;
145 [label="gini = 0.0\nsamples = 6\nvalue = [1, 0]\nclass = republicans", fillcolor="#e581391c"] ;
144 -> 145 ;
146 [label="gini = 0.0\nsamples = 2\nvalue = [0, 1]\nclass = democrats", fillcolor="#399de580"] ;
144 -> 146 ;
147 [label="tentat <= 0.022\ngini = 0.067\nsamples = 16\nvalue = [0.034, 0.966]\nclass = democrats", fillcolor="#399de508"] ;
139 -> 147 ;
148 [label="gini = 0.0\nsamples = 15\nvalue = [0, 1]\nclass = democrats", fillcolor="#399de509"] ;
147 -> 148 ;
149 [label="gini = 0.0\nsamples = 1\nvalue = [1, 0]\nclass = republicans", fillcolor="#e58139ff"] ;
147 -> 149 ;
150 [label="gini = 0.0\nsamples = 7\nvalue = [1, 0]\nclass = republicans", fillcolor="#e5813914"] ;
138 -> 150 ;
151 [label="pronoun <= 0.121\ngini = 0.103\nsamples = 72\nvalue = [0.055, 0.945]\nclass = democrats", fillcolor="#399de502"] ;
137 -> 151 ;
152 [label="focusfuture <= 0.006\ngini = 0.088\nsamples = 71\nvalue = [0.046, 0.954]\nclass = democrats", fillcolor="#399de502"] ;
151 -> 152 ;
153 [label="discrep <= 0.008\ngini = 0.49\nsamples = 5\nvalue = [0.429, 0.571]\nclass = democrats", fillcolor="#399de506"] ;
152 -> 153 ;
154 [label="gini = 0.0\nsamples = 3\nvalue = [0, 1]\nclass = democrats", fillcolor="#399de540"] ;
153 -> 154 ;
155 [label="gini = 0.0\nsamples = 2\nvalue = [1, 0]\nclass = republicans", fillcolor="#e5813955"] ;
153 -> 155 ;
156 [label="affiliation <= 0.042\ngini = 0.038\nsamples = 66\nvalue = [0.02, 0.98]\nclass = democrats", fillcolor="#399de502"] ;
152 -> 156 ;
157 [label="gini = 0.0\nsamples = 46\nvalue = [0, 1]\nclass = democrats", fillcolor="#399de503"] ;
156 -> 157 ;
158 [label="auxverb <= 0.057\ngini = 0.133\nsamples = 20\nvalue = [0.071, 0.929]\nclass = democrats", fillcolor="#399de508"] ;
156 -> 158 ;
159 [label="gini = 0.0\nsamples = 15\nvalue = [0, 1]\nclass = democrats", fillcolor="#399de50d"] ;
158 -> 159 ;
160 [label="sad <= 0.0\ngini = 0.375\nsamples = 5\nvalue = [0.25, 0.75]\nclass = democrats", fillcolor="#399de510"] ;
158 -> 160 ;
161 [label="gini = 0.0\nsamples = 1\nvalue = [1, 0]\nclass = republicans", fillcolor="#e58139ff"] ;
160 -> 161 ;
162 [label="death <= 0.002\ngini = 0.245\nsamples = 4\nvalue = [0.143, 0.857]\nclass = democrats", fillcolor="#399de51b"] ;
160 -> 162 ;
163 [label="gini = 0.0\nsamples = 3\nvalue = [0, 1]\nclass = democrats", fillcolor="#399de52a"] ;
162 -> 163 ;
164 [label="gini = 0.0\nsamples = 1\nvalue = [1, 0]\nclass = republicans", fillcolor="#e58139ff"] ;
162 -> 164 ;
165 [label="gini = 0.0\nsamples = 1\nvalue = [1, 0]\nclass = republicans", fillcolor="#e58139ff"] ;
151 -> 165 ;
166 [label="power <= 0.063\ngini = 0.487\nsamples = 83\nvalue = [0.581, 0.419]\nclass = republicans", fillcolor="#e5813900"] ;
132 -> 166 ;
167 [label="auxverb <= 0.063\ngini = 0.499\nsamples = 71\nvalue = [0.517, 0.483]\nclass = republicans", fillcolor="#e5813900"] ;
166 -> 167 ;
168 [label="risk <= 0.014\ngini = 0.477\nsamples = 53\nvalue = [0.393, 0.607]\nclass = democrats", fillcolor="#399de501"] ;
167 -> 168 ;
169 [label="health <= 0.007\ngini = 0.365\nsamples = 35\nvalue = [0.24, 0.76]\nclass = democrats", fillcolor="#399de503"] ;
168 -> 169 ;
170 [label="space <= 0.066\ngini = 0.165\nsamples = 23\nvalue = [0.091, 0.909]\nclass = democrats", fillcolor="#399de506"] ;
169 -> 170 ;
171 [label="gini = 0.0\nsamples = 3\nvalue = [1, 0]\nclass = republicans", fillcolor="#e5813955"] ;
170 -> 171 ;
172 [label="gini = 0.0\nsamples = 20\nvalue = [0, 1]\nclass = democrats", fillcolor="#399de508"] ;
170 -> 172 ;
173 [label="certain <= 0.008\ngini = 0.498\nsamples = 12\nvalue = [0.529, 0.471]\nclass = republicans", fillcolor="#e5813901"] ;
169 -> 173 ;
174 [label="gini = 0.0\nsamples = 4\nvalue = [0, 1]\nclass = democrats", fillcolor="#399de524"] ;
173 -> 174 ;
175 [label="female <= 0.002\ngini = 0.18\nsamples = 8\nvalue = [0.9, 0.1]\nclass = republicans", fillcolor="#e5813915"] ;
173 -> 175 ;
176 [label="gini = 0.0\nsamples = 7\nvalue = [1, 0]\nclass = republicans", fillcolor="#e581391c"] ;
175 -> 176 ;
177 [label="gini = 0.0\nsamples = 1\nvalue = [0, 1]\nclass = democrats", fillcolor="#399de5ff"] ;
175 -> 177 ;
178 [label="anx <= 0.001\ngini = 0.484\nsamples = 18\nvalue = [0.59, 0.41]\nclass = republicans", fillcolor="#e5813901"] ;
168 -> 178 ;
179 [label="gini = 0.0\nsamples = 3\nvalue = [0, 1]\nclass = democrats", fillcolor="#399de524"] ;
178 -> 179 ;
180 [label="cause <= 0.014\ngini = 0.404\nsamples = 15\nvalue = [0.719, 0.281]\nclass = republicans", fillcolor="#e5813904"] ;
178 -> 180 ;
181 [label="bio <= 0.02\ngini = 0.087\nsamples = 10\nvalue = [0.955, 0.045]\nclass = republicans", fillcolor="#e581390b"] ;
180 -> 181 ;
182 [label="gini = 0.0\nsamples = 9\nvalue = [1, 0]\nclass = republicans", fillcolor="#e581390c"] ;
181 -> 182 ;
183 [label="gini = 0.0\nsamples = 1\nvalue = [0, 1]\nclass = democrats", fillcolor="#399de5ff"] ;
181 -> 183 ;
184 [label="relig <= 0.003\ngini = 0.32\nsamples = 5\nvalue = [0.2, 0.8]\nclass = democrats", fillcolor="#399de510"] ;
180 -> 184 ;
185 [label="gini = 0.0\nsamples = 4\nvalue = [0, 1]\nclass = democrats", fillcolor="#399de520"] ;
184 -> 185 ;
186 [label="gini = 0.0\nsamples = 1\nvalue = [1, 0]\nclass = republicans", fillcolor="#e5813980"] ;
184 -> 186 ;
187 [label="cogproc <= 0.094\ngini = 0.137\nsamples = 18\nvalue = [0.926, 0.074]\nclass = republicans", fillcolor="#e5813908"] ;
167 -> 187 ;
188 [label="gini = 0.0\nsamples = 16\nvalue = [1, 0]\nclass = republicans", fillcolor="#e581390a"] ;
187 -> 188 ;
189 [label="gini = 0.0\nsamples = 2\nvalue = [0, 1]\nclass = democrats", fillcolor="#399de580"] ;
187 -> 189 ;
190 [label="friend <= 0.001\ngini = 0.095\nsamples = 12\nvalue = [0.95, 0.05]\nclass = republicans", fillcolor="#e581390c"] ;
166 -> 190 ;
191 [label="achieve <= 0.028\ngini = 0.444\nsamples = 3\nvalue = [0.667, 0.333]\nclass = republicans", fillcolor="#e5813920"] ;
190 -> 191 ;
192 [label="gini = 0.0\nsamples = 1\nvalue = [0, 1]\nclass = democrats", fillcolor="#399de5ff"] ;
191 -> 192 ;
193 [label="gini = 0.0\nsamples = 2\nvalue = [1, 0]\nclass = republicans", fillcolor="#e5813980"] ;
191 -> 193 ;
194 [label="gini = 0.0\nsamples = 9\nvalue = [1, 0]\nclass = republicans", fillcolor="#e581390f"] ;
190 -> 194 ;
195 [label="sad <= 0.002\ngini = 0.481\nsamples = 153\nvalue = [0.597, 0.403]\nclass = republicans", fillcolor="#e5813900"] ;
131 -> 195 ;
196 [label="anger <= 0.005\ngini = 0.485\nsamples = 59\nvalue = [0.412, 0.588]\nclass = democrats", fillcolor="#399de500"] ;
195 -> 196 ;
197 [label="motion <= 0.015\ngini = 0.32\nsamples = 26\nvalue = [0.2, 0.8]\nclass = democrats", fillcolor="#399de504"] ;
196 -> 197 ;
198 [label="health <= 0.009\ngini = 0.32\nsamples = 4\nvalue = [0.8, 0.2]\nclass = republicans", fillcolor="#e5813920"] ;
197 -> 198 ;
199 [label="gini = 0.0\nsamples = 1\nvalue = [0, 1]\nclass = democrats", fillcolor="#399de5ff"] ;
198 -> 199 ;
200 [label="gini = 0.0\nsamples = 3\nvalue = [1, 0]\nclass = republicans", fillcolor="#e5813940"] ;
198 -> 200 ;
201 [label="health <= 0.014\ngini = 0.202\nsamples = 22\nvalue = [0.114, 0.886]\nclass = democrats", fillcolor="#399de506"] ;
197 -> 201 ;
202 [label="netspeak <= 0.003\ngini = 0.062\nsamples = 18\nvalue = [0.032, 0.968]\nclass = democrats", fillcolor="#399de508"] ;
201 -> 202 ;
203 [label="gini = 0.0\nsamples = 17\nvalue = [0, 1]\nclass = democrats", fillcolor="#399de508"] ;
202 -> 203 ;
204 [label="gini = 0.0\nsamples = 1\nvalue = [1, 0]\nclass = republicans", fillcolor="#e58139ff"] ;
202 -> 204 ;
205 [label="cogproc <= 0.059\ngini = 0.375\nsamples = 4\nvalue = [0.75, 0.25]\nclass = republicans", fillcolor="#e5813922"] ;
201 -> 205 ;
206 [label="gini = 0.0\nsamples = 1\nvalue = [0, 1]\nclass = democrats", fillcolor="#399de5ff"] ;
205 -> 206 ;
207 [label="gini = 0.0\nsamples = 3\nvalue = [1, 0]\nclass = republicans", fillcolor="#e5813955"] ;
205 -> 207 ;
208 [label="relativ <= 0.132\ngini = 0.492\nsamples = 33\nvalue = [0.561, 0.439]\nclass = republicans", fillcolor="#e5813901"] ;
196 -> 208 ;
209 [label="we <= 0.026\ngini = 0.278\nsamples = 14\nvalue = [0.833, 0.167]\nclass = republicans", fillcolor="#e5813907"] ;
208 -> 209 ;
210 [label="friend <= 0.007\ngini = 0.091\nsamples = 12\nvalue = [0.952, 0.048]\nclass = republicans", fillcolor="#e581390b"] ;
209 -> 210 ;
211 [label="gini = 0.0\nsamples = 11\nvalue = [1, 0]\nclass = republicans", fillcolor="#e581390d"] ;
210 -> 211 ;
212 [label="gini = 0.0\nsamples = 1\nvalue = [0, 1]\nclass = democrats", fillcolor="#399de5ff"] ;
210 -> 212 ;
213 [label="gini = 0.0\nsamples = 2\nvalue = [0, 1]\nclass = democrats", fillcolor="#399de555"] ;
209 -> 213 ;
214 [label="you <= 0.009\ngini = 0.463\nsamples = 19\nvalue = [0.364, 0.636]\nclass = democrats", fillcolor="#399de502"] ;
208 -> 214 ;
215 [label="achieve <= 0.029\ngini = 0.298\nsamples = 11\nvalue = [0.182, 0.818]\nclass = democrats", fillcolor="#399de507"] ;
214 -> 215 ;
216 [label="differ <= 0.018\ngini = 0.1\nsamples = 9\nvalue = [0.053, 0.947]\nclass = democrats", fillcolor="#399de50c"] ;
215 -> 216 ;
217 [label="gini = 0.0\nsamples = 8\nvalue = [0, 1]\nclass = democrats", fillcolor="#399de50e"] ;
216 -> 217 ;
218 [label="gini = 0.0\nsamples = 1\nvalue = [1, 0]\nclass = republicans", fillcolor="#e58139ff"] ;
216 -> 218 ;
219 [label="gini = 0.0\nsamples = 2\nvalue = [1, 0]\nclass = republicans", fillcolor="#e5813955"] ;
215 -> 219 ;
220 [label="assent <= 0.0\ngini = 0.397\nsamples = 8\nvalue = [0.727, 0.273]\nclass = republicans", fillcolor="#e581390b"] ;
214 -> 220 ;
221 [label="ipron <= 0.02\ngini = 0.375\nsamples = 4\nvalue = [0.25, 0.75]\nclass = democrats", fillcolor="#399de522"] ;
220 -> 221 ;
222 [label="gini = 0.0\nsamples = 1\nvalue = [1, 0]\nclass = republicans", fillcolor="#e58139ff"] ;
221 -> 222 ;
223 [label="gini = 0.0\nsamples = 3\nvalue = [0, 1]\nclass = democrats", fillcolor="#399de555"] ;
221 -> 223 ;
224 [label="gini = 0.0\nsamples = 4\nvalue = [1, 0]\nclass = republicans", fillcolor="#e5813924"] ;
220 -> 224 ;
225 [label="anx <= 0.002\ngini = 0.4\nsamples = 94\nvalue = [0.723, 0.277]\nclass = republicans", fillcolor="#e5813901"] ;
195 -> 225 ;
226 [label="time <= 0.06\ngini = 0.497\nsamples = 35\nvalue = [0.458, 0.542]\nclass = democrats", fillcolor="#399de500"] ;
225 -> 226 ;
227 [label="compare <= 0.017\ngini = 0.455\nsamples = 30\nvalue = [0.35, 0.65]\nclass = democrats", fillcolor="#399de502"] ;
226 -> 227 ;
228 [label="ppron <= 0.059\ngini = 0.375\nsamples = 9\nvalue = [0.75, 0.25]\nclass = republicans", fillcolor="#e581390b"] ;
227 -> 228 ;
229 [label="netspeak <= 0.0\ngini = 0.375\nsamples = 4\nvalue = [0.25, 0.75]\nclass = democrats", fillcolor="#399de522"] ;
228 -> 229 ;
230 [label="gini = 0.0\nsamples = 1\nvalue = [1, 0]\nclass = republicans", fillcolor="#e58139ff"] ;
229 -> 230 ;
231 [label="gini = 0.0\nsamples = 3\nvalue = [0, 1]\nclass = democrats", fillcolor="#399de555"] ;
229 -> 231 ;
232 [label="gini = 0.0\nsamples = 5\nvalue = [1, 0]\nclass = republicans", fillcolor="#e5813920"] ;
228 -> 232 ;
233 [label="sad <= 0.006\ngini = 0.293\nsamples = 21\nvalue = [0.179, 0.821]\nclass = democrats", fillcolor="#399de506"] ;
227 -> 233 ;
234 [label="achieve <= 0.04\ngini = 0.08\nsamples = 18\nvalue = [0.042, 0.958]\nclass = democrats", fillcolor="#399de50a"] ;
233 -> 234 ;
235 [label="gini = 0.0\nsamples = 17\nvalue = [0, 1]\nclass = democrats", fillcolor="#399de50b"] ;
234 -> 235 ;
236 [label="gini = 0.0\nsamples = 1\nvalue = [1, 0]\nclass = republicans", fillcolor="#e58139ff"] ;
234 -> 236 ;
237 [label="gini = 0.0\nsamples = 3\nvalue = [1, 0]\nclass = republicans", fillcolor="#e5813940"] ;
233 -> 237 ;
238 [label="gini = 0.0\nsamples = 5\nvalue = [1, 0]\nclass = republicans", fillcolor="#e5813920"] ;
226 -> 238 ;
239 [label="negemo <= 0.014\ngini = 0.24\nsamples = 59\nvalue = [0.86, 0.14]\nclass = republicans", fillcolor="#e5813902"] ;
225 -> 239 ;
240 [label="friend <= 0.003\ngini = 0.495\nsamples = 12\nvalue = [0.55, 0.45]\nclass = republicans", fillcolor="#e5813901"] ;
239 -> 240 ;
241 [label="gini = 0.0\nsamples = 7\nvalue = [1, 0]\nclass = republicans", fillcolor="#e581391c"] ;
240 -> 241 ;
242 [label="sad <= 0.003\ngini = 0.298\nsamples = 5\nvalue = [0.182, 0.818]\nclass = democrats", fillcolor="#399de50f"] ;
240 -> 242 ;
243 [label="gini = 0.0\nsamples = 1\nvalue = [1, 0]\nclass = republicans", fillcolor="#e5813980"] ;
242 -> 243 ;
244 [label="gini = 0.0\nsamples = 4\nvalue = [0, 1]\nclass = democrats", fillcolor="#399de51c"] ;
242 -> 244 ;
245 [label="leisure <= 0.003\ngini = 0.104\nsamples = 47\nvalue = [0.945, 0.055]\nclass = republicans", fillcolor="#e5813903"] ;
239 -> 245 ;
246 [label="you <= 0.004\ngini = 0.444\nsamples = 3\nvalue = [0.333, 0.667]\nclass = democrats", fillcolor="#399de520"] ;
245 -> 246 ;
247 [label="gini = 0.0\nsamples = 1\nvalue = [1, 0]\nclass = republicans", fillcolor="#e58139ff"] ;
246 -> 247 ;
248 [label="gini = 0.0\nsamples = 2\nvalue = [0, 1]\nclass = democrats", fillcolor="#399de580"] ;
246 -> 248 ;
249 [label="focuspast <= 0.013\ngini = 0.056\nsamples = 44\nvalue = [0.971, 0.029]\nclass = republicans", fillcolor="#e5813903"] ;
245 -> 249 ;
250 [label="time <= 0.042\ngini = 0.444\nsamples = 3\nvalue = [0.667, 0.333]\nclass = republicans", fillcolor="#e581390f"] ;
249 -> 250 ;
251 [label="gini = 0.0\nsamples = 2\nvalue = [1, 0]\nclass = republicans", fillcolor="#e5813940"] ;
250 -> 251 ;
252 [label="gini = 0.0\nsamples = 1\nvalue = [0, 1]\nclass = democrats", fillcolor="#399de580"] ;
250 -> 252 ;
253 [label="gini = 0.0\nsamples = 41\nvalue = [1, 0]\nclass = republicans", fillcolor="#e5813904"] ;
249 -> 253 ;
254 [label="negate <= 0.006\ngini = 0.469\nsamples = 920\nvalue = [0.625, 0.375]\nclass = republicans", fillcolor="#e5813900"] ;
0 -> 254 [labeldistance=2.5, labelangle=-45, headlabel="False"] ;
255 [label="health <= 0.013\ngini = 0.493\nsamples = 383\nvalue = [0.442, 0.558]\nclass = democrats", fillcolor="#399de500"] ;
254 -> 255 ;
256 [label="money <= 0.014\ngini = 0.47\nsamples = 319\nvalue = [0.377, 0.623]\nclass = democrats", fillcolor="#399de500"] ;
255 -> 256 ;
257 [label="relig <= 0.003\ngini = 0.492\nsamples = 132\nvalue = [0.564, 0.436]\nclass = republicans", fillcolor="#e5813900"] ;
256 -> 257 ;
258 [label="relativ <= 0.195\ngini = 0.28\nsamples = 65\nvalue = [0.832, 0.168]\nclass = republicans", fillcolor="#e5813901"] ;
257 -> 258 ;
259 [label="home <= 0.005\ngini = 0.249\nsamples = 63\nvalue = [0.855, 0.145]\nclass = republicans", fillcolor="#e5813902"] ;
258 -> 259 ;
260 [label="leisure <= 0.006\ngini = 0.48\nsamples = 17\nvalue = [0.6, 0.4]\nclass = republicans", fillcolor="#e5813902"] ;
259 -> 260 ;
261 [label="discrep <= 0.017\ngini = 0.153\nsamples = 8\nvalue = [0.917, 0.083]\nclass = republicans", fillcolor="#e5813912"] ;
260 -> 261 ;
262 [label="gini = 0.0\nsamples = 7\nvalue = [1, 0]\nclass = republicans", fillcolor="#e5813917"] ;
261 -> 262 ;
263 [label="gini = 0.0\nsamples = 1\nvalue = [0, 1]\nclass = democrats", fillcolor="#399de5ff"] ;
261 -> 263 ;
264 [label="sad <= 0.002\ngini = 0.426\nsamples = 9\nvalue = [0.308, 0.692]\nclass = democrats", fillcolor="#399de508"] ;
260 -> 264 ;
265 [label="gini = 0.0\nsamples = 1\nvalue = [1, 0]\nclass = republicans", fillcolor="#e5813980"] ;
264 -> 265 ;
266 [label="tentat <= 0.016\ngini = 0.298\nsamples = 8\nvalue = [0.182, 0.818]\nclass = democrats", fillcolor="#399de50f"] ;
264 -> 266 ;
267 [label="gini = 0.0\nsamples = 6\nvalue = [0, 1]\nclass = democrats", fillcolor="#399de51c"] ;
266 -> 267 ;
268 [label="gini = 0.0\nsamples = 2\nvalue = [1, 0]\nclass = republicans", fillcolor="#e5813980"] ;
266 -> 268 ;
269 [label="ingest <= 0.011\ngini = 0.131\nsamples = 46\nvalue = [0.929, 0.071]\nclass = republicans", fillcolor="#e5813903"] ;
259 -> 269 ;
270 [label="leisure <= 0.005\ngini = 0.112\nsamples = 45\nvalue = [0.94, 0.06]\nclass = republicans", fillcolor="#e5813903"] ;
269 -> 270 ;
271 [label="pronoun <= 0.087\ngini = 0.49\nsamples = 5\nvalue = [0.571, 0.429]\nclass = republicans", fillcolor="#e5813906"] ;
270 -> 271 ;
272 [label="gini = 0.0\nsamples = 3\nvalue = [1, 0]\nclass = republicans", fillcolor="#e5813940"] ;
271 -> 272 ;
273 [label="gini = 0.0\nsamples = 2\nvalue = [0, 1]\nclass = democrats", fillcolor="#399de555"] ;
271 -> 273 ;
274 [label="netspeak <= 0.001\ngini = 0.051\nsamples = 40\nvalue = [0.974, 0.026]\nclass = republicans", fillcolor="#e5813903"] ;
270 -> 274 ;
275 [label="anx <= 0.002\ngini = 0.18\nsamples = 12\nvalue = [0.9, 0.1]\nclass = republicans", fillcolor="#e581390a"] ;
274 -> 275 ;
276 [label="tentat <= 0.008\ngini = 0.5\nsamples = 4\nvalue = [0.5, 0.5]\nclass = republicans", fillcolor="#e5813900"] ;
275 -> 276 ;
277 [label="gini = 0.0\nsamples = 2\nvalue = [0, 1]\nclass = democrats", fillcolor="#399de580"] ;
276 -> 277 ;
278 [label="gini = 0.0\nsamples = 2\nvalue = [1, 0]\nclass = republicans", fillcolor="#e5813980"] ;
276 -> 278 ;
279 [label="gini = 0.0\nsamples = 8\nvalue = [1, 0]\nclass = republicans", fillcolor="#e5813910"] ;
275 -> 279 ;
280 [label="gini = 0.0\nsamples = 28\nvalue = [1, 0]\nclass = republicans", fillcolor="#e5813904"] ;
274 -> 280 ;
281 [label="gini = 0.0\nsamples = 1\nvalue = [0, 1]\nclass = democrats", fillcolor="#399de5ff"] ;
269 -> 281 ;
282 [label="gini = 0.0\nsamples = 2\nvalue = [0, 1]\nclass = democrats", fillcolor="#399de555"] ;
258 -> 282 ;
283 [label="percept <= 0.015\ngini = 0.4\nsamples = 67\nvalue = [0.276, 0.724]\nclass = democrats", fillcolor="#399de501"] ;
257 -> 283 ;
284 [label="focuspast <= 0.025\ngini = 0.491\nsamples = 33\nvalue = [0.434, 0.566]\nclass = democrats", fillcolor="#399de501"] ;
283 -> 284 ;
285 [label="family <= 0.005\ngini = 0.48\nsamples = 24\nvalue = [0.6, 0.4]\nclass = republicans", fillcolor="#e5813901"] ;
284 -> 285 ;
286 [label="bio <= 0.012\ngini = 0.298\nsamples = 9\nvalue = [0.182, 0.818]\nclass = democrats", fillcolor="#399de50f"] ;
285 -> 286 ;
287 [label="sexual <= 0.0\ngini = 0.444\nsamples = 3\nvalue = [0.667, 0.333]\nclass = republicans", fillcolor="#e5813920"] ;
286 -> 287 ;
288 [label="gini = 0.0\nsamples = 1\nvalue = [0, 1]\nclass = democrats", fillcolor="#399de5ff"] ;
287 -> 288 ;
289 [label="gini = 0.0\nsamples = 2\nvalue = [1, 0]\nclass = republicans", fillcolor="#e5813980"] ;
287 -> 289 ;
290 [label="gini = 0.0\nsamples = 6\nvalue = [0, 1]\nclass = democrats", fillcolor="#399de520"] ;
286 -> 290 ;
291 [label="ipron <= 0.043\ngini = 0.33\nsamples = 15\nvalue = [0.792, 0.208]\nclass = republicans", fillcolor="#e5813906"] ;
285 -> 291 ;
292 [label="negate <= 0.006\ngini = 0.236\nsamples = 14\nvalue = [0.864, 0.136]\nclass = republicans", fillcolor="#e5813908"] ;
291 -> 292 ;
293 [label="cause <= 0.02\ngini = 0.172\nsamples = 13\nvalue = [0.905, 0.095]\nclass = republicans", fillcolor="#e581390a"] ;
292 -> 293 ;
294 [label="home <= 0.006\ngini = 0.095\nsamples = 12\nvalue = [0.95, 0.05]\nclass = republicans", fillcolor="#e581390c"] ;
293 -> 294 ;
295 [label="gini = 0.0\nsamples = 1\nvalue = [0, 1]\nclass = democrats", fillcolor="#399de5ff"] ;
294 -> 295 ;
296 [label="gini = 0.0\nsamples = 11\nvalue = [1, 0]\nclass = republicans", fillcolor="#e581390d"] ;
294 -> 296 ;
297 [label="gini = 0.0\nsamples = 1\nvalue = [0, 1]\nclass = democrats", fillcolor="#399de5ff"] ;
293 -> 297 ;
298 [label="gini = 0.0\nsamples = 1\nvalue = [0, 1]\nclass = democrats", fillcolor="#399de5ff"] ;
292 -> 298 ;
299 [label="gini = 0.0\nsamples = 1\nvalue = [0, 1]\nclass = democrats", fillcolor="#399de580"] ;
291 -> 299 ;
300 [label="adj <= 0.037\ngini = 0.198\nsamples = 9\nvalue = [0.111, 0.889]\nclass = democrats", fillcolor="#399de50b"] ;
284 -> 300 ;
301 [label="gini = 0.0\nsamples = 1\nvalue = [1, 0]\nclass = republicans", fillcolor="#e5813980"] ;
300 -> 301 ;
302 [label="gini = 0.0\nsamples = 8\nvalue = [0, 1]\nclass = democrats", fillcolor="#399de510"] ;
300 -> 302 ;
303 [label="netspeak <= 0.007\ngini = 0.204\nsamples = 34\nvalue = [0.115, 0.885]\nclass = democrats", fillcolor="#399de504"] ;
283 -> 303 ;
304 [label="negate <= 0.006\ngini = 0.177\nsamples = 33\nvalue = [0.098, 0.902]\nclass = democrats", fillcolor="#399de504"] ;
303 -> 304 ;
305 [label="feel <= 0.004\ngini = 0.115\nsamples = 31\nvalue = [0.061, 0.939]\nclass = democrats", fillcolor="#399de505"] ;
304 -> 305 ;
306 [label="certain <= 0.012\ngini = 0.044\nsamples = 28\nvalue = [0.023, 0.977]\nclass = democrats", fillcolor="#399de506"] ;
305 -> 306 ;
307 [label="function <= 0.389\ngini = 0.5\nsamples = 2\nvalue = [0.5, 0.5]\nclass = republicans", fillcolor="#e5813900"] ;
306 -> 307 ;
308 [label="gini = 0.0\nsamples = 1\nvalue = [0, 1]\nclass = democrats", fillcolor="#399de5ff"] ;
307 -> 308 ;
309 [label="gini = 0.0\nsamples = 1\nvalue = [1, 0]\nclass = republicans", fillcolor="#e58139ff"] ;
307 -> 309 ;
310 [label="gini = 0.0\nsamples = 26\nvalue = [0, 1]\nclass = democrats", fillcolor="#399de506"] ;
306 -> 310 ;
311 [label="focuspresent <= 0.078\ngini = 0.48\nsamples = 3\nvalue = [0.4, 0.6]\nclass = democrats", fillcolor="#399de50b"] ;
305 -> 311 ;
312 [label="gini = 0.0\nsamples = 2\nvalue = [0, 1]\nclass = democrats", fillcolor="#399de555"] ;
311 -> 312 ;
313 [label="gini = 0.0\nsamples = 1\nvalue = [1, 0]\nclass = republicans", fillcolor="#e5813980"] ;
311 -> 313 ;
314 [label="gini = 0.0\nsamples = 2\nvalue = [1, 0]\nclass = republicans", fillcolor="#e5813980"] ;
304 -> 314 ;
315 [label="gini = 0.0\nsamples = 1\nvalue = [1, 0]\nclass = republicans", fillcolor="#e58139ff"] ;
303 -> 315 ;
316 [label="discrep <= 0.008\ngini = 0.368\nsamples = 187\nvalue = [0.243, 0.757]\nclass = democrats", fillcolor="#399de500"] ;
256 -> 316 ;
317 [label="adj <= 0.04\ngini = 0.111\nsamples = 84\nvalue = [0.059, 0.941]\nclass = democrats", fillcolor="#399de502"] ;
316 -> 317 ;
318 [label="anx <= 0.004\ngini = 0.282\nsamples = 28\nvalue = [0.17, 0.83]\nclass = democrats", fillcolor="#399de504"] ;
317 -> 318 ;
319 [label="power <= 0.07\ngini = 0.136\nsamples = 25\nvalue = [0.073, 0.927]\nclass = democrats", fillcolor="#399de505"] ;
318 -> 319 ;
320 [label="negate <= 0.001\ngini = 0.095\nsamples = 24\nvalue = [0.05, 0.95]\nclass = democrats", fillcolor="#399de506"] ;
319 -> 320 ;
321 [label="gini = 0.0\nsamples = 1\nvalue = [1, 0]\nclass = republicans", fillcolor="#e58139ff"] ;
320 -> 321 ;
322 [label="body <= 0.004\ngini = 0.05\nsamples = 23\nvalue = [0.026, 0.974]\nclass = democrats", fillcolor="#399de506"] ;
320 -> 322 ;
323 [label="gini = 0.0\nsamples = 22\nvalue = [0, 1]\nclass = democrats", fillcolor="#399de507"] ;
322 -> 323 ;
324 [label="gini = 0.0\nsamples = 1\nvalue = [1, 0]\nclass = republicans", fillcolor="#e58139ff"] ;
322 -> 324 ;
325 [label="gini = 0.0\nsamples = 1\nvalue = [1, 0]\nclass = republicans", fillcolor="#e58139ff"] ;
319 -> 325 ;
326 [label="percept <= 0.008\ngini = 0.278\nsamples = 3\nvalue = [0.833, 0.167]\nclass = republicans", fillcolor="#e581391d"] ;
318 -> 326 ;
327 [label="gini = 0.0\nsamples = 1\nvalue = [0, 1]\nclass = democrats", fillcolor="#399de5ff"] ;
326 -> 327 ;
328 [label="gini = 0.0\nsamples = 2\nvalue = [1, 0]\nclass = republicans", fillcolor="#e5813933"] ;
326 -> 328 ;
329 [label="gini = 0.0\nsamples = 56\nvalue = [0, 1]\nclass = democrats", fillcolor="#399de503"] ;
317 -> 329 ;
330 [label="social <= 0.096\ngini = 0.476\nsamples = 103\nvalue = [0.391, 0.609]\nclass = democrats", fillcolor="#399de500"] ;
316 -> 330 ;
331 [label="insight <= 0.021\ngini = 0.356\nsamples = 55\nvalue = [0.232, 0.768]\nclass = democrats", fillcolor="#399de501"] ;
330 -> 331 ;
332 [label="female <= 0.007\ngini = 0.309\nsamples = 51\nvalue = [0.191, 0.809]\nclass = democrats", fillcolor="#399de502"] ;
331 -> 332 ;
333 [label="compare <= 0.009\ngini = 0.23\nsamples = 48\nvalue = [0.133, 0.867]\nclass = democrats", fillcolor="#399de502"] ;
332 -> 333 ;
334 [label="gini = 0.0\nsamples = 1\nvalue = [1, 0]\nclass = republicans", fillcolor="#e5813980"] ;
333 -> 334 ;
335 [label="sad <= 0.009\ngini = 0.198\nsamples = 47\nvalue = [0.111, 0.889]\nclass = democrats", fillcolor="#399de502"] ;
333 -> 335 ;
336 [label="affect <= 0.043\ngini = 0.162\nsamples = 46\nvalue = [0.089, 0.911]\nclass = democrats", fillcolor="#399de503"] ;
335 -> 336 ;
337 [label="gini = 0.0\nsamples = 1\nvalue = [1, 0]\nclass = republicans", fillcolor="#e58139ff"] ;
336 -> 337 ;
338 [label="verb <= 0.082\ngini = 0.142\nsamples = 45\nvalue = [0.077, 0.923]\nclass = democrats", fillcolor="#399de503"] ;
336 -> 338 ;
339 [label="gini = 0.0\nsamples = 1\nvalue = [1, 0]\nclass = republicans", fillcolor="#e58139ff"] ;
338 -> 339 ;
340 [label="interrog <= 0.014\ngini = 0.121\nsamples = 44\nvalue = [0.065, 0.935]\nclass = democrats", fillcolor="#399de503"] ;
338 -> 340 ;
341 [label="reward <= 0.014\ngini = 0.1\nsamples = 43\nvalue = [0.053, 0.947]\nclass = democrats", fillcolor="#399de503"] ;
340 -> 341 ;
342 [label="cogproc <= 0.069\ngini = 0.245\nsamples = 17\nvalue = [0.143, 0.857]\nclass = democrats", fillcolor="#399de507"] ;
341 -> 342 ;
343 [label="affiliation <= 0.047\ngini = 0.08\nsamples = 13\nvalue = [0.042, 0.958]\nclass = democrats", fillcolor="#399de50a"] ;
342 -> 343 ;
344 [label="gini = 0.0\nsamples = 12\nvalue = [0, 1]\nclass = democrats", fillcolor="#399de50b"] ;
343 -> 344 ;
345 [label="gini = 0.0\nsamples = 1\nvalue = [1, 0]\nclass = republicans", fillcolor="#e58139ff"] ;
343 -> 345 ;
346 [label="pronoun <= 0.102\ngini = 0.375\nsamples = 4\nvalue = [0.75, 0.25]\nclass = republicans", fillcolor="#e5813922"] ;
342 -> 346 ;
347 [label="gini = 0.0\nsamples = 3\nvalue = [1, 0]\nclass = republicans", fillcolor="#e5813955"] ;
346 -> 347 ;
348 [label="gini = 0.0\nsamples = 1\nvalue = [0, 1]\nclass = democrats", fillcolor="#399de5ff"] ;
346 -> 348 ;
349 [label="gini = 0.0\nsamples = 26\nvalue = [0, 1]\nclass = democrats", fillcolor="#399de505"] ;
341 -> 349 ;
350 [label="gini = 0.0\nsamples = 1\nvalue = [1, 0]\nclass = republicans", fillcolor="#e58139ff"] ;
340 -> 350 ;
351 [label="gini = 0.0\nsamples = 1\nvalue = [1, 0]\nclass = republicans", fillcolor="#e5813980"] ;
335 -> 351 ;
352 [label="gini = 0.0\nsamples = 3\nvalue = [1, 0]\nclass = republicans", fillcolor="#e581392a"] ;
332 -> 352 ;
353 [label="sad <= 0.002\ngini = 0.278\nsamples = 4\nvalue = [0.833, 0.167]\nclass = republicans", fillcolor="#e581391d"] ;
331 -> 353 ;
354 [label="gini = 0.0\nsamples = 3\nvalue = [1, 0]\nclass = republicans", fillcolor="#e5813933"] ;
353 -> 354 ;
355 [label="gini = 0.0\nsamples = 1\nvalue = [0, 1]\nclass = democrats", fillcolor="#399de5ff"] ;
353 -> 355 ;
356 [label="reward <= 0.012\ngini = 0.482\nsamples = 48\nvalue = [0.595, 0.405]\nclass = republicans", fillcolor="#e5813901"] ;
330 -> 356 ;
357 [label="gini = 0.0\nsamples = 13\nvalue = [1, 0]\nclass = republicans", fillcolor="#e581390d"] ;
356 -> 357 ;
358 [label="assent <= 0.001\ngini = 0.494\nsamples = 35\nvalue = [0.444, 0.556]\nclass = democrats", fillcolor="#399de501"] ;
356 -> 358 ;
359 [label="leisure <= 0.008\ngini = 0.43\nsamples = 21\nvalue = [0.688, 0.312]\nclass = republicans", fillcolor="#e5813903"] ;
358 -> 359 ;
360 [label="prep <= 0.155\ngini = 0.444\nsamples = 8\nvalue = [0.333, 0.667]\nclass = democrats", fillcolor="#399de507"] ;
359 -> 360 ;
361 [label="gini = 0.0\nsamples = 4\nvalue = [0, 1]\nclass = democrats", fillcolor="#399de524"] ;
360 -> 361 ;
362 [label="interrog <= 0.012\ngini = 0.32\nsamples = 4\nvalue = [0.8, 0.2]\nclass = republicans", fillcolor="#e5813920"] ;
360 -> 362 ;
363 [label="gini = 0.0\nsamples = 3\nvalue = [1, 0]\nclass = republicans", fillcolor="#e5813940"] ;
362 -> 363 ;
364 [label="gini = 0.0\nsamples = 1\nvalue = [0, 1]\nclass = democrats", fillcolor="#399de5ff"] ;
362 -> 364 ;
365 [label="motion <= 0.013\ngini = 0.18\nsamples = 13\nvalue = [0.9, 0.1]\nclass = republicans", fillcolor="#e581390a"] ;
359 -> 365 ;
366 [label="focusfuture <= 0.01\ngini = 0.444\nsamples = 3\nvalue = [0.333, 0.667]\nclass = democrats", fillcolor="#399de520"] ;
365 -> 366 ;
367 [label="gini = 0.0\nsamples = 2\nvalue = [0, 1]\nclass = democrats", fillcolor="#399de580"] ;
366 -> 367 ;
368 [label="gini = 0.0\nsamples = 1\nvalue = [1, 0]\nclass = republicans", fillcolor="#e58139ff"] ;
366 -> 368 ;
369 [label="gini = 0.0\nsamples = 10\nvalue = [1, 0]\nclass = republicans", fillcolor="#e581390f"] ;
365 -> 369 ;
370 [label="article <= 0.058\ngini = 0.165\nsamples = 14\nvalue = [0.091, 0.909]\nclass = democrats", fillcolor="#399de50a"] ;
358 -> 370 ;
371 [label="assent <= 0.002\ngini = 0.48\nsamples = 4\nvalue = [0.4, 0.6]\nclass = democrats", fillcolor="#399de50b"] ;
370 -> 371 ;
372 [label="they <= 0.016\ngini = 0.444\nsamples = 3\nvalue = [0.667, 0.333]\nclass = republicans", fillcolor="#e5813920"] ;
371 -> 372 ;
373 [label="gini = 0.0\nsamples = 2\nvalue = [1, 0]\nclass = republicans", fillcolor="#e5813980"] ;
372 -> 373 ;
374 [label="gini = 0.0\nsamples = 1\nvalue = [0, 1]\nclass = democrats", fillcolor="#399de5ff"] ;
372 -> 374 ;
375 [label="gini = 0.0\nsamples = 1\nvalue = [0, 1]\nclass = democrats", fillcolor="#399de580"] ;
371 -> 375 ;
376 [label="gini = 0.0\nsamples = 10\nvalue = [0, 1]\nclass = democrats", fillcolor="#399de50f"] ;
370 -> 376 ;
377 [label="relig <= 0.003\ngini = 0.357\nsamples = 64\nvalue = [0.767, 0.233]\nclass = republicans", fillcolor="#e5813901"] ;
255 -> 377 ;
378 [label="they <= 0.001\ngini = 0.159\nsamples = 41\nvalue = [0.913, 0.087]\nclass = republicans", fillcolor="#e5813903"] ;
377 -> 378 ;
379 [label="gini = 0.0\nsamples = 1\nvalue = [0, 1]\nclass = democrats", fillcolor="#399de580"] ;
378 -> 379 ;
380 [label="power <= 0.041\ngini = 0.112\nsamples = 40\nvalue = [0.94, 0.06]\nclass = republicans", fillcolor="#e5813903"] ;
378 -> 380 ;
381 [label="death <= 0.003\ngini = 0.5\nsamples = 6\nvalue = [0.5, 0.5]\nclass = republicans", fillcolor="#e5813900"] ;
380 -> 381 ;
382 [label="gini = 0.0\nsamples = 3\nvalue = [1, 0]\nclass = republicans", fillcolor="#e5813940"] ;
381 -> 382 ;
383 [label="gini = 0.0\nsamples = 3\nvalue = [0, 1]\nclass = democrats", fillcolor="#399de540"] ;
381 -> 383 ;
384 [label="gini = 0.0\nsamples = 34\nvalue = [1, 0]\nclass = republicans", fillcolor="#e5813904"] ;
380 -> 384 ;
385 [label="social <= 0.091\ngini = 0.498\nsamples = 23\nvalue = [0.471, 0.529]\nclass = democrats", fillcolor="#399de500"] ;
377 -> 385 ;
386 [label="anger <= 0.005\ngini = 0.375\nsamples = 9\nvalue = [0.75, 0.25]\nclass = republicans", fillcolor="#e5813908"] ;
385 -> 386 ;
387 [label="gini = 0.0\nsamples = 2\nvalue = [0, 1]\nclass = democrats", fillcolor="#399de580"] ;
386 -> 387 ;
388 [label="affiliation <= 0.021\ngini = 0.245\nsamples = 7\nvalue = [0.857, 0.143]\nclass = republicans", fillcolor="#e581390d"] ;
386 -> 388 ;
389 [label="gini = 0.0\nsamples = 1\nvalue = [0, 1]\nclass = democrats", fillcolor="#399de580"] ;
388 -> 389 ;
390 [label="gini = 0.0\nsamples = 6\nvalue = [1, 0]\nclass = republicans", fillcolor="#e5813915"] ;
388 -> 390 ;
391 [label="drives <= 0.151\ngini = 0.346\nsamples = 14\nvalue = [0.222, 0.778]\nclass = democrats", fillcolor="#399de508"] ;
385 -> 391 ;
392 [label="achieve <= 0.027\ngini = 0.219\nsamples = 12\nvalue = [0.125, 0.875]\nclass = democrats", fillcolor="#399de50c"] ;
391 -> 392 ;
393 [label="gini = 0.0\nsamples = 2\nvalue = [1, 0]\nclass = republicans", fillcolor="#e5813980"] ;
392 -> 393 ;
394 [label="gini = 0.0\nsamples = 10\nvalue = [0, 1]\nclass = democrats", fillcolor="#399de512"] ;
392 -> 394 ;
395 [label="gini = 0.0\nsamples = 2\nvalue = [1, 0]\nclass = republicans", fillcolor="#e5813980"] ;
391 -> 395 ;
396 [label="health <= 0.006\ngini = 0.364\nsamples = 537\nvalue = [0.76, 0.24]\nclass = republicans", fillcolor="#e5813900"] ;
254 -> 396 ;
397 [label="negemo <= 0.019\ngini = 0.488\nsamples = 174\nvalue = [0.577, 0.423]\nclass = republicans", fillcolor="#e5813900"] ;
396 -> 397 ;
398 [label="focuspast <= 0.018\ngini = 0.456\nsamples = 76\nvalue = [0.352, 0.648]\nclass = democrats", fillcolor="#399de501"] ;
397 -> 398 ;
399 [label="pronoun <= 0.072\ngini = 0.438\nsamples = 23\nvalue = [0.676, 0.324]\nclass = republicans", fillcolor="#e5813903"] ;
398 -> 399 ;
400 [label="gini = 0.0\nsamples = 4\nvalue = [0, 1]\nclass = democrats", fillcolor="#399de540"] ;
399 -> 400 ;
401 [label="power <= 0.041\ngini = 0.358\nsamples = 19\nvalue = [0.767, 0.233]\nclass = republicans", fillcolor="#e5813905"] ;
399 -> 401 ;
402 [label="gini = 0.0\nsamples = 3\nvalue = [0, 1]\nclass = democrats", fillcolor="#399de555"] ;
401 -> 402 ;
403 [label="function <= 0.382\ngini = 0.252\nsamples = 16\nvalue = [0.852, 0.148]\nclass = republicans", fillcolor="#e5813907"] ;
401 -> 403 ;
404 [label="gini = 0.0\nsamples = 2\nvalue = [0, 1]\nclass = democrats", fillcolor="#399de580"] ;
403 -> 404 ;
405 [label="home <= 0.013\ngini = 0.147\nsamples = 14\nvalue = [0.92, 0.08]\nclass = republicans", fillcolor="#e5813909"] ;
403 -> 405 ;
406 [label="gini = 0.0\nsamples = 13\nvalue = [1, 0]\nclass = republicans", fillcolor="#e581390b"] ;
405 -> 406 ;
407 [label="gini = 0.0\nsamples = 1\nvalue = [0, 1]\nclass = democrats", fillcolor="#399de580"] ;
405 -> 407 ;
408 [label="discrep <= 0.009\ngini = 0.359\nsamples = 53\nvalue = [0.234, 0.766]\nclass = democrats", fillcolor="#399de501"] ;
398 -> 408 ;
409 [label="you <= 0.016\ngini = 0.067\nsamples = 13\nvalue = [0.034, 0.966]\nclass = democrats", fillcolor="#399de508"] ;
408 -> 409 ;
410 [label="gini = 0.0\nsamples = 11\nvalue = [0, 1]\nclass = democrats", fillcolor="#399de50a"] ;
409 -> 410 ;
411 [label="insight <= 0.012\ngini = 0.444\nsamples = 2\nvalue = [0.333, 0.667]\nclass = democrats", fillcolor="#399de520"] ;
409 -> 411 ;
412 [label="gini = 0.0\nsamples = 1\nvalue = [1, 0]\nclass = republicans", fillcolor="#e58139ff"] ;
411 -> 412 ;
413 [label="gini = 0.0\nsamples = 1\nvalue = [0, 1]\nclass = democrats", fillcolor="#399de580"] ;
411 -> 413 ;
414 [label="see <= 0.01\ngini = 0.437\nsamples = 40\nvalue = [0.323, 0.677]\nclass = democrats", fillcolor="#399de501"] ;
408 -> 414 ;
415 [label="function <= 0.367\ngini = 0.329\nsamples = 32\nvalue = [0.208, 0.792]\nclass = democrats", fillcolor="#399de503"] ;
414 -> 415 ;
416 [label="gini = 0.0\nsamples = 2\nvalue = [1, 0]\nclass = republicans", fillcolor="#e5813955"] ;
415 -> 416 ;
417 [label="pronoun <= 0.116\ngini = 0.269\nsamples = 30\nvalue = [0.16, 0.84]\nclass = democrats", fillcolor="#399de503"] ;
415 -> 417 ;
418 [label="anx <= 0.005\ngini = 0.159\nsamples = 27\nvalue = [0.087, 0.913]\nclass = democrats", fillcolor="#399de505"] ;
417 -> 418 ;
419 [label="adverb <= 0.016\ngini = 0.087\nsamples = 26\nvalue = [0.045, 0.955]\nclass = democrats", fillcolor="#399de505"] ;
418 -> 419 ;
420 [label="gini = 0.0\nsamples = 1\nvalue = [1, 0]\nclass = republicans", fillcolor="#e58139ff"] ;
419 -> 420 ;
421 [label="they <= 0.003\ngini = 0.045\nsamples = 25\nvalue = [0.023, 0.977]\nclass = democrats", fillcolor="#399de506"] ;
419 -> 421 ;
422 [label="space <= 0.063\ngini = 0.32\nsamples = 5\nvalue = [0.2, 0.8]\nclass = democrats", fillcolor="#399de520"] ;
421 -> 422 ;
423 [label="gini = 0.0\nsamples = 1\nvalue = [1, 0]\nclass = republicans", fillcolor="#e58139ff"] ;
422 -> 423 ;
424 [label="gini = 0.0\nsamples = 4\nvalue = [0, 1]\nclass = democrats", fillcolor="#399de540"] ;
422 -> 424 ;
425 [label="gini = 0.0\nsamples = 20\nvalue = [0, 1]\nclass = democrats", fillcolor="#399de507"] ;
421 -> 425 ;
426 [label="gini = 0.0\nsamples = 1\nvalue = [1, 0]\nclass = republicans", fillcolor="#e5813980"] ;
418 -> 426 ;
427 [label="gini = 0.0\nsamples = 3\nvalue = [1, 0]\nclass = republicans", fillcolor="#e5813940"] ;
417 -> 427 ;
428 [label="leisure <= 0.004\ngini = 0.278\nsamples = 8\nvalue = [0.833, 0.167]\nclass = republicans", fillcolor="#e581390e"] ;
414 -> 428 ;
429 [label="gini = 0.0\nsamples = 1\nvalue = [0, 1]\nclass = democrats", fillcolor="#399de580"] ;
428 -> 429 ;
430 [label="gini = 0.0\nsamples = 7\nvalue = [1, 0]\nclass = republicans", fillcolor="#e581391a"] ;
428 -> 430 ;
431 [label="affect <= 0.07\ngini = 0.365\nsamples = 98\nvalue = [0.759, 0.241]\nclass = republicans", fillcolor="#e5813901"] ;
397 -> 431 ;
432 [label="tentat <= 0.004\ngini = 0.193\nsamples = 71\nvalue = [0.892, 0.108]\nclass = republicans", fillcolor="#e5813902"] ;
431 -> 432 ;
433 [label="gini = 0.0\nsamples = 1\nvalue = [0, 1]\nclass = democrats", fillcolor="#399de580"] ;
432 -> 433 ;
434 [label="number <= 0.018\ngini = 0.167\nsamples = 70\nvalue = [0.908, 0.092]\nclass = republicans", fillcolor="#e5813902"] ;
432 -> 434 ;
435 [label="friend <= 0.001\ngini = 0.048\nsamples = 54\nvalue = [0.976, 0.024]\nclass = republicans", fillcolor="#e5813903"] ;
434 -> 435 ;
436 [label="ingest <= 0.003\ngini = 0.188\nsamples = 12\nvalue = [0.895, 0.105]\nclass = republicans", fillcolor="#e581390b"] ;
435 -> 436 ;
437 [label="gini = 0.0\nsamples = 10\nvalue = [1, 0]\nclass = republicans", fillcolor="#e581390f"] ;
436 -> 437 ;
438 [label="gini = 0.0\nsamples = 2\nvalue = [0, 1]\nclass = democrats", fillcolor="#399de580"] ;
436 -> 438 ;
439 [label="gini = 0.0\nsamples = 42\nvalue = [1, 0]\nclass = republicans", fillcolor="#e5813904"] ;
435 -> 439 ;
440 [label="male <= 0.009\ngini = 0.417\nsamples = 16\nvalue = [0.704, 0.296]\nclass = republicans", fillcolor="#e5813904"] ;
434 -> 440 ;
441 [label="assent <= 0.001\ngini = 0.49\nsamples = 8\nvalue = [0.429, 0.571]\nclass = democrats", fillcolor="#399de503"] ;
440 -> 441 ;
442 [label="interrog <= 0.007\ngini = 0.375\nsamples = 5\nvalue = [0.75, 0.25]\nclass = republicans", fillcolor="#e5813910"] ;
441 -> 442 ;
443 [label="gini = 0.0\nsamples = 2\nvalue = [0, 1]\nclass = democrats", fillcolor="#399de580"] ;
442 -> 443 ;
444 [label="gini = 0.0\nsamples = 3\nvalue = [1, 0]\nclass = republicans", fillcolor="#e581392a"] ;
442 -> 444 ;
445 [label="gini = 0.0\nsamples = 3\nvalue = [0, 1]\nclass = democrats", fillcolor="#399de52a"] ;
441 -> 445 ;
446 [label="gini = 0.0\nsamples = 8\nvalue = [1, 0]\nclass = republicans", fillcolor="#e5813914"] ;
440 -> 446 ;
447 [label="sad <= 0.007\ngini = 0.494\nsamples = 27\nvalue = [0.447, 0.553]\nclass = democrats", fillcolor="#399de501"] ;
431 -> 447 ;
448 [label="female <= 0.0\ngini = 0.472\nsamples = 21\nvalue = [0.618, 0.382]\nclass = republicans", fillcolor="#e5813902"] ;
447 -> 448 ;
449 [label="gini = 0.0\nsamples = 3\nvalue = [0, 1]\nclass = democrats", fillcolor="#399de52a"] ;
448 -> 449 ;
450 [label="relativ <= 0.142\ngini = 0.375\nsamples = 18\nvalue = [0.75, 0.25]\nclass = republicans", fillcolor="#e5813905"] ;
448 -> 450 ;
451 [label="compare <= 0.014\ngini = 0.219\nsamples = 15\nvalue = [0.875, 0.125]\nclass = republicans", fillcolor="#e5813908"] ;
450 -> 451 ;
452 [label="gini = 0.0\nsamples = 2\nvalue = [0, 1]\nclass = democrats", fillcolor="#399de580"] ;
451 -> 452 ;
453 [label="friend <= 0.004\ngini = 0.087\nsamples = 13\nvalue = [0.955, 0.045]\nclass = republicans", fillcolor="#e581390b"] ;
451 -> 453 ;
454 [label="gini = 0.0\nsamples = 11\nvalue = [1, 0]\nclass = republicans", fillcolor="#e581390d"] ;
453 -> 454 ;
455 [label="ppron <= 0.062\ngini = 0.5\nsamples = 2\nvalue = [0.5, 0.5]\nclass = republicans", fillcolor="#e5813900"] ;
453 -> 455 ;
456 [label="gini = 0.0\nsamples = 1\nvalue = [1, 0]\nclass = republicans", fillcolor="#e58139ff"] ;
455 -> 456 ;
457 [label="gini = 0.0\nsamples = 1\nvalue = [0, 1]\nclass = democrats", fillcolor="#399de5ff"] ;
455 -> 457 ;
458 [label="gini = 0.0\nsamples = 3\nvalue = [0, 1]\nclass = democrats", fillcolor="#399de540"] ;
450 -> 458 ;
459 [label="gini = 0.0\nsamples = 6\nvalue = [0, 1]\nclass = democrats", fillcolor="#399de514"] ;
447 -> 459 ;
460 [label="leisure <= 0.002\ngini = 0.25\nsamples = 363\nvalue = [0.854, 0.146]\nclass = republicans", fillcolor="#e5813900"] ;
396 -> 460 ;
461 [label="see <= 0.008\ngini = 0.397\nsamples = 7\nvalue = [0.273, 0.727]\nclass = democrats", fillcolor="#399de50b"] ;
460 -> 461 ;
462 [label="gini = 0.0\nsamples = 4\nvalue = [0, 1]\nclass = democrats", fillcolor="#399de520"] ;
461 -> 462 ;
463 [label="gini = 0.0\nsamples = 3\nvalue = [1, 0]\nclass = republicans", fillcolor="#e5813955"] ;
461 -> 463 ;
464 [label="negemo <= 0.014\ngini = 0.233\nsamples = 356\nvalue = [0.865, 0.135]\nclass = republicans", fillcolor="#e5813900"] ;
460 -> 464 ;
465 [label="ppron <= 0.067\ngini = 0.5\nsamples = 41\nvalue = [0.5, 0.5]\nclass = republicans", fillcolor="#e5813900"] ;
464 -> 465 ;
466 [label="focuspast <= 0.018\ngini = 0.457\nsamples = 28\nvalue = [0.353, 0.647]\nclass = democrats", fillcolor="#399de502"] ;
465 -> 466 ;
467 [label="anx <= 0.001\ngini = 0.426\nsamples = 11\nvalue = [0.692, 0.308]\nclass = republicans", fillcolor="#e5813908"] ;
466 -> 467 ;
468 [label="function <= 0.366\ngini = 0.32\nsamples = 4\nvalue = [0.2, 0.8]\nclass = democrats", fillcolor="#399de520"] ;
467 -> 468 ;
469 [label="gini = 0.0\nsamples = 1\nvalue = [1, 0]\nclass = republicans", fillcolor="#e58139ff"] ;
468 -> 469 ;
470 [label="gini = 0.0\nsamples = 3\nvalue = [0, 1]\nclass = democrats", fillcolor="#399de540"] ;
468 -> 470 ;
471 [label="gini = 0.0\nsamples = 7\nvalue = [1, 0]\nclass = republicans", fillcolor="#e5813920"] ;
467 -> 471 ;
472 [label="adverb <= 0.017\ngini = 0.245\nsamples = 17\nvalue = [0.143, 0.857]\nclass = democrats", fillcolor="#399de509"] ;
466 -> 472 ;
473 [label="gini = 0.0\nsamples = 1\nvalue = [1, 0]\nclass = republicans", fillcolor="#e58139ff"] ;
472 -> 473 ;
474 [label="ipron <= 0.039\ngini = 0.18\nsamples = 16\nvalue = [0.1, 0.9]\nclass = democrats", fillcolor="#399de50a"] ;
472 -> 474 ;
475 [label="gini = 0.0\nsamples = 12\nvalue = [0, 1]\nclass = democrats", fillcolor="#399de510"] ;
474 -> 475 ;
476 [label="focuspast <= 0.021\ngini = 0.5\nsamples = 4\nvalue = [0.5, 0.5]\nclass = republicans", fillcolor="#e5813900"] ;
474 -> 476 ;
477 [label="gini = 0.0\nsamples = 2\nvalue = [1, 0]\nclass = republicans", fillcolor="#e5813980"] ;
476 -> 477 ;
478 [label="gini = 0.0\nsamples = 2\nvalue = [0, 1]\nclass = democrats", fillcolor="#399de580"] ;
476 -> 478 ;
479 [label="compare <= 0.018\ngini = 0.375\nsamples = 13\nvalue = [0.75, 0.25]\nclass = republicans", fillcolor="#e5813906"] ;
465 -> 479 ;
480 [label="gini = 0.0\nsamples = 8\nvalue = [1, 0]\nclass = republicans", fillcolor="#e5813912"] ;
479 -> 480 ;
481 [label="article <= 0.054\ngini = 0.278\nsamples = 5\nvalue = [0.167, 0.833]\nclass = democrats", fillcolor="#399de51d"] ;
479 -> 481 ;
482 [label="gini = 0.0\nsamples = 1\nvalue = [1, 0]\nclass = republicans", fillcolor="#e58139ff"] ;
481 -> 482 ;
483 [label="gini = 0.0\nsamples = 4\nvalue = [0, 1]\nclass = democrats", fillcolor="#399de533"] ;
481 -> 483 ;
484 [label="i <= 0.02\ngini = 0.172\nsamples = 315\nvalue = [0.905, 0.095]\nclass = republicans", fillcolor="#e5813900"] ;
464 -> 484 ;
485 [label="female <= 0.0\ngini = 0.125\nsamples = 285\nvalue = [0.933, 0.067]\nclass = republicans", fillcolor="#e5813900"] ;
484 -> 485 ;
486 [label="male <= 0.003\ngini = 0.466\nsamples = 16\nvalue = [0.63, 0.37]\nclass = republicans", fillcolor="#e5813902"] ;
485 -> 486 ;
487 [label="article <= 0.055\ngini = 0.375\nsamples = 6\nvalue = [0.25, 0.75]\nclass = democrats", fillcolor="#399de50b"] ;
486 -> 487 ;
488 [label="gini = 0.0\nsamples = 3\nvalue = [0, 1]\nclass = democrats", fillcolor="#399de520"] ;
487 -> 488 ;
489 [label="see <= 0.004\ngini = 0.375\nsamples = 3\nvalue = [0.75, 0.25]\nclass = republicans", fillcolor="#e5813922"] ;
487 -> 489 ;
490 [label="gini = 0.0\nsamples = 1\nvalue = [0, 1]\nclass = democrats", fillcolor="#399de5ff"] ;
489 -> 490 ;
491 [label="gini = 0.0\nsamples = 2\nvalue = [1, 0]\nclass = republicans", fillcolor="#e5813955"] ;
489 -> 491 ;
492 [label="we <= 0.024\ngini = 0.124\nsamples = 10\nvalue = [0.933, 0.067]\nclass = republicans", fillcolor="#e581390f"] ;
486 -> 492 ;
493 [label="gini = 0.0\nsamples = 7\nvalue = [1, 0]\nclass = republicans", fillcolor="#e5813915"] ;
492 -> 493 ;
494 [label="work <= 0.056\ngini = 0.444\nsamples = 3\nvalue = [0.667, 0.333]\nclass = republicans", fillcolor="#e5813920"] ;
492 -> 494 ;
495 [label="gini = 0.0\nsamples = 1\nvalue = [0, 1]\nclass = democrats", fillcolor="#399de5ff"] ;
494 -> 495 ;
496 [label="gini = 0.0\nsamples = 2\nvalue = [1, 0]\nclass = republicans", fillcolor="#e5813980"] ;
494 -> 496 ;
497 [label="bio <= 0.008\ngini = 0.091\nsamples = 269\nvalue = [0.952, 0.048]\nclass = republicans", fillcolor="#e5813901"] ;
485 -> 497 ;
498 [label="conj <= 0.036\ngini = 0.49\nsamples = 5\nvalue = [0.571, 0.429]\nclass = republicans", fillcolor="#e5813906"] ;
497 -> 498 ;
499 [label="gini = 0.0\nsamples = 3\nvalue = [1, 0]\nclass = republicans", fillcolor="#e5813940"] ;
498 -> 499 ;
500 [label="gini = 0.0\nsamples = 2\nvalue = [0, 1]\nclass = democrats", fillcolor="#399de555"] ;
498 -> 500 ;
501 [label="conj <= 0.062\ngini = 0.079\nsamples = 264\nvalue = [0.959, 0.041]\nclass = republicans", fillcolor="#e5813901"] ;
497 -> 501 ;
502 [label="quant <= 0.009\ngini = 0.075\nsamples = 263\nvalue = [0.961, 0.039]\nclass = republicans", fillcolor="#e5813901"] ;
501 -> 502 ;
503 [label="affect <= 0.07\ngini = 0.48\nsamples = 3\nvalue = [0.4, 0.6]\nclass = democrats", fillcolor="#399de50b"] ;
502 -> 503 ;
504 [label="gini = 0.0\nsamples = 2\nvalue = [1, 0]\nclass = republicans", fillcolor="#e5813980"] ;
503 -> 504 ;
505 [label="gini = 0.0\nsamples = 1\nvalue = [0, 1]\nclass = democrats", fillcolor="#399de555"] ;
503 -> 505 ;
506 [label="male <= 0.015\ngini = 0.062\nsamples = 260\nvalue = [0.968, 0.032]\nclass = republicans", fillcolor="#e5813901"] ;
502 -> 506 ;
507 [label="conj <= 0.015\ngini = 0.046\nsamples = 247\nvalue = [0.977, 0.023]\nclass = republicans", fillcolor="#e5813901"] ;
506 -> 507 ;
508 [label="they <= 0.005\ngini = 0.5\nsamples = 2\nvalue = [0.5, 0.5]\nclass = republicans", fillcolor="#e5813900"] ;
507 -> 508 ;
509 [label="gini = 0.0\nsamples = 1\nvalue = [1, 0]\nclass = republicans", fillcolor="#e58139ff"] ;
508 -> 509 ;
510 [label="gini = 0.0\nsamples = 1\nvalue = [0, 1]\nclass = democrats", fillcolor="#399de5ff"] ;
508 -> 510 ;
511 [label="anger <= 0.001\ngini = 0.041\nsamples = 245\nvalue = [0.979, 0.021]\nclass = republicans", fillcolor="#e5813901"] ;
507 -> 511 ;
512 [label="gini = 0.0\nsamples = 1\nvalue = [0, 1]\nclass = democrats", fillcolor="#399de5ff"] ;
511 -> 512 ;
513 [label="ingest <= 0.009\ngini = 0.036\nsamples = 244\nvalue = [0.982, 0.018]\nclass = republicans", fillcolor="#e5813901"] ;
511 -> 513 ;
514 [label="interrog <= 0.003\ngini = 0.031\nsamples = 242\nvalue = [0.984, 0.016]\nclass = republicans", fillcolor="#e5813901"] ;
513 -> 514 ;
515 [label="focusfuture <= 0.011\ngini = 0.5\nsamples = 2\nvalue = [0.5, 0.5]\nclass = republicans", fillcolor="#e5813900"] ;
514 -> 515 ;
516 [label="gini = 0.0\nsamples = 1\nvalue = [0, 1]\nclass = democrats", fillcolor="#399de5ff"] ;
515 -> 516 ;
517 [label="gini = 0.0\nsamples = 1\nvalue = [1, 0]\nclass = republicans", fillcolor="#e58139ff"] ;
515 -> 517 ;
518 [label="discrep <= 0.004\ngini = 0.026\nsamples = 240\nvalue = [0.987, 0.013]\nclass = republicans", fillcolor="#e5813901"] ;
514 -> 518 ;
519 [label="gini = 0.0\nsamples = 1\nvalue = [0, 1]\nclass = democrats", fillcolor="#399de5ff"] ;
518 -> 519 ;
520 [label="body <= 0.007\ngini = 0.021\nsamples = 239\nvalue = [0.989, 0.011]\nclass = republicans", fillcolor="#e5813901"] ;
518 -> 520 ;
521 [label="compare <= 0.023\ngini = 0.016\nsamples = 236\nvalue = [0.992, 0.008]\nclass = republicans", fillcolor="#e5813901"] ;
520 -> 521 ;
522 [label="informal <= 0.007\ngini = 0.006\nsamples = 211\nvalue = [0.997, 0.003]\nclass = republicans", fillcolor="#e5813901"] ;
521 -> 522 ;
523 [label="gini = 0.0\nsamples = 207\nvalue = [1, 0]\nclass = republicans", fillcolor="#e5813901"] ;
522 -> 523 ;
524 [label="informal <= 0.008\ngini = 0.245\nsamples = 4\nvalue = [0.857, 0.143]\nclass = republicans", fillcolor="#e581391b"] ;
522 -> 524 ;
525 [label="gini = 0.0\nsamples = 1\nvalue = [0, 1]\nclass = democrats", fillcolor="#399de5ff"] ;
524 -> 525 ;
526 [label="gini = 0.0\nsamples = 3\nvalue = [1, 0]\nclass = republicans", fillcolor="#e581392a"] ;
524 -> 526 ;
527 [label="reward <= 0.006\ngini = 0.093\nsamples = 25\nvalue = [0.951, 0.049]\nclass = republicans", fillcolor="#e5813906"] ;
521 -> 527 ;
528 [label="gini = 0.0\nsamples = 1\nvalue = [0, 1]\nclass = democrats", fillcolor="#399de5ff"] ;
527 -> 528 ;
529 [label="family <= 0.009\ngini = 0.049\nsamples = 24\nvalue = [0.975, 0.025]\nclass = republicans", fillcolor="#e5813906"] ;
527 -> 529 ;
530 [label="gini = 0.0\nsamples = 22\nvalue = [1, 0]\nclass = republicans", fillcolor="#e5813907"] ;
529 -> 530 ;
531 [label="quant <= 0.016\ngini = 0.5\nsamples = 2\nvalue = [0.5, 0.5]\nclass = republicans", fillcolor="#e5813900"] ;
529 -> 531 ;
532 [label="gini = 0.0\nsamples = 1\nvalue = [1, 0]\nclass = republicans", fillcolor="#e58139ff"] ;
531 -> 532 ;
533 [label="gini = 0.0\nsamples = 1\nvalue = [0, 1]\nclass = democrats", fillcolor="#399de5ff"] ;
531 -> 533 ;
534 [label="function <= 0.422\ngini = 0.375\nsamples = 3\nvalue = [0.75, 0.25]\nclass = republicans", fillcolor="#e5813922"] ;
520 -> 534 ;
535 [label="gini = 0.0\nsamples = 1\nvalue = [0, 1]\nclass = democrats", fillcolor="#399de5ff"] ;
534 -> 535 ;
536 [label="gini = 0.0\nsamples = 2\nvalue = [1, 0]\nclass = republicans", fillcolor="#e5813955"] ;
534 -> 536 ;
537 [label="friend <= 0.003\ngini = 0.5\nsamples = 2\nvalue = [0.5, 0.5]\nclass = republicans", fillcolor="#e5813900"] ;
513 -> 537 ;
538 [label="gini = 0.0\nsamples = 1\nvalue = [0, 1]\nclass = democrats", fillcolor="#399de5ff"] ;
537 -> 538 ;
539 [label="gini = 0.0\nsamples = 1\nvalue = [1, 0]\nclass = republicans", fillcolor="#e58139ff"] ;
537 -> 539 ;
540 [label="posemo <= 0.048\ngini = 0.308\nsamples = 13\nvalue = [0.81, 0.19]\nclass = republicans", fillcolor="#e5813908"] ;
506 -> 540 ;
541 [label="gini = 0.0\nsamples = 11\nvalue = [1, 0]\nclass = republicans", fillcolor="#e581390f"] ;
540 -> 541 ;
542 [label="gini = 0.0\nsamples = 2\nvalue = [0, 1]\nclass = democrats", fillcolor="#399de540"] ;
540 -> 542 ;
543 [label="gini = 0.0\nsamples = 1\nvalue = [0, 1]\nclass = democrats", fillcolor="#399de5ff"] ;
501 -> 543 ;
544 [label="nonflu <= 0.001\ngini = 0.453\nsamples = 30\nvalue = [0.653, 0.347]\nclass = republicans", fillcolor="#e5813902"] ;
484 -> 544 ;
545 [label="anx <= 0.007\ngini = 0.266\nsamples = 25\nvalue = [0.842, 0.158]\nclass = republicans", fillcolor="#e5813905"] ;
544 -> 545 ;
546 [label="drives <= 0.156\ngini = 0.157\nsamples = 24\nvalue = [0.914, 0.086]\nclass = republicans", fillcolor="#e5813906"] ;
545 -> 546 ;
547 [label="shehe <= 0.001\ngini = 0.111\nsamples = 23\nvalue = [0.941, 0.059]\nclass = republicans", fillcolor="#e5813907"] ;
546 -> 547 ;
548 [label="gini = 0.0\nsamples = 1\nvalue = [0, 1]\nclass = democrats", fillcolor="#399de5ff"] ;
547 -> 548 ;
549 [label="quant <= 0.012\ngini = 0.059\nsamples = 22\nvalue = [0.97, 0.03]\nclass = republicans", fillcolor="#e5813907"] ;
547 -> 549 ;
550 [label="hear <= 0.002\ngini = 0.444\nsamples = 3\nvalue = [0.667, 0.333]\nclass = republicans", fillcolor="#e5813920"] ;
549 -> 550 ;
551 [label="gini = 0.0\nsamples = 1\nvalue = [0, 1]\nclass = democrats", fillcolor="#399de5ff"] ;
550 -> 551 ;
552 [label="gini = 0.0\nsamples = 2\nvalue = [1, 0]\nclass = republicans", fillcolor="#e5813980"] ;
550 -> 552 ;
553 [label="gini = 0.0\nsamples = 19\nvalue = [1, 0]\nclass = republicans", fillcolor="#e5813908"] ;
549 -> 553 ;
554 [label="gini = 0.0\nsamples = 1\nvalue = [0, 1]\nclass = democrats", fillcolor="#399de5ff"] ;
546 -> 554 ;
555 [label="gini = 0.0\nsamples = 1\nvalue = [0, 1]\nclass = democrats", fillcolor="#399de555"] ;
545 -> 555 ;
556 [label="gini = 0.0\nsamples = 5\nvalue = [0, 1]\nclass = democrats", fillcolor="#399de517"] ;
544 -> 556 ;
}